{
  "W1": [
    [
      0.08183032093916981,
      0.018982911754347603,
      0.007870499995427296,
      0.033988263159028434
    ],
    [
      -0.03153187803657028,
      -0.041122580899823236,
      -0.037503744508393624,
      0.10659323419615639
    ],
    [
      -0.08607682087132121,
      0.11086985170248671,
      0.16156683592154808,
      -0.02655381686466619
    ],
    [
      -0.010157915123782352,
      0.0013118500662411348,
      -0.1412055941502505,
      0.03377833710128999
    ],
    [
      -0.10104215819082893,
      -0.14769916549541334,
      -0.10627596234927905,
      -0.03623902706492797
    ],
    [
      0.1358494949487259,
      0.14434510502251688,
      -0.13261894815854414,
      0.0634453335374903
    ],
    [
      -0.023051573508273283,
      0.06619009827767001,
      0.06689822499637835,
      0.14661461782228766
    ],
    [
      0.10184504248632864,
      0.09393548337977539,
      0.11463433915525564,
      -0.19853326399430493
    ]
  ],
  "b1": [
    -0.00018620465724605105,
    -0.00012364552944907153,
    -9.005881911506822e-05,
    0.00013355319764473458
  ],
  "W2": [
    [
      0.03647007970681225,
      0.07049204423637881
    ],
    [
      0.07180108796954807,
      0.05824338163857027
    ],
    [
      0.044914271740088135,
      -0.14456430264133568
    ],
    [
      -0.040725366684572266,
      0.05457077515596324
    ]
  ],
  "b2": [
    0.0012466698513636503,
    -0.0036325126856937965
  ],
  "W3": [
    [
      -0.08832459004918776,
      0.056436227500296365,
      -0.016483314939020062,
      0.06922171866979662
    ],
    [
      0.006598946060530581,
      -0.030279719405521,
      -0.20989705994165797,
      -0.06816510543817604
    ]
  ],
  "b3": [
    0.0022909761467217785,
    0.01574362196091895,
    0.0,
    -0.0018612515371947416
  ],
  "W4": [
    [
      0.07492457706661401,
      0.03366888461208651,
      -0.007927617069973537,
      -0.10763962904712242,
      0.04651305733646789,
      0.09644475210489052,
      -0.13321963523138022,
      -0.03564965911266749
    ],
    [
      -0.07026583395708264,
      0.08650100307050859,
      -0.11683375403143255,
      -0.05302041029573935,
      0.07122426804584793,
      0.09552890645861659,
      -0.12559263685021718,
      0.0780975425140619
    ],
    [
      -0.1014719018483264,
      0.019153046218323172,
      -0.05855357207937498,
      -0.015964780754548262,
      -0.19324158537990674,
      -0.0013771067783166484,
      0.1272643233701067,
      -0.1141524729374772
    ],
    [
      0.04578682969382648,
      0.014802928655309858,
      0.06431139100619375,
      0.04624725806876419,
      0.016430476431112506,
      0.0825826669299607,
      -0.025210426333503864,
      -0.03584364137567419
    ]
  ],
  "b4": [
    -0.032239244141605644,
    0.03392243988023064,
    -0.021004559154739286,
    -0.005818404390050878,
    -0.030531195909160563,
    -0.00465072468156364,
    -0.03824051027019874,
    0.07441271531455462
  ],
  "threshold": 0.08004607166463498,
  "training_loss": [
    {
      "epoch": 1,
      "loss": 0.058706
    },
    {
      "epoch": 3,
      "loss": 0.05872
    },
    {
      "epoch": 5,
      "loss": 0.058667
    },
    {
      "epoch": 7,
      "loss": 0.058608
    },
    {
      "epoch": 9,
      "loss": 0.058376
    },
    {
      "epoch": 11,
      "loss": 0.058546
    },
    {
      "epoch": 13,
      "loss": 0.058617
    },
    {
      "epoch": 15,
      "loss": 0.058598
    },
    {
      "epoch": 17,
      "loss": 0.058686
    },
    {
      "epoch": 19,
      "loss": 0.058532
    },
    {
      "epoch": 21,
      "loss": 0.058649
    },
    {
      "epoch": 23,
      "loss": 0.058539
    },
    {
      "epoch": 25,
      "loss": 0.058394
    },
    {
      "epoch": 27,
      "loss": 0.058394
    },
    {
      "epoch": 29,
      "loss": 0.058846
    },
    {
      "epoch": 31,
      "loss": 0.058455
    },
    {
      "epoch": 33,
      "loss": 0.058458
    },
    {
      "epoch": 35,
      "loss": 0.05876
    },
    {
      "epoch": 37,
      "loss": 0.058482
    },
    {
      "epoch": 39,
      "loss": 0.058532
    },
    {
      "epoch": 41,
      "loss": 0.05856
    },
    {
      "epoch": 43,
      "loss": 0.058532
    },
    {
      "epoch": 45,
      "loss": 0.058582
    },
    {
      "epoch": 47,
      "loss": 0.058569
    },
    {
      "epoch": 49,
      "loss": 0.058634
    }
  ],
  "n_features": 8,
  "is_trained": true
}